0.4554375
-0.4929734
-0.3418751
0.4629959
0.4323309
-0.5647665
-0.2290161
-0.5128551
0.4807248
0.1524475
0.6785124
-0.5697316
-0.7566109
0.3534846
0.1619219
0.630415
0.276485
-0.2253544
-0.5858816
-1
0.1907587
-0.1704572
0.03639121
0.6553731
-0.4142843
0.5558091
0.7409433
0.541607
-0.4058047
-0.1423195
-0.200537
-0.327331
-0.4509423
-0.3931434
0.1327227
-0.3273399
0.7232153
-0.06502764
0.1633921
0.2481031
0.2569282
-0.06137484
0.1828085
-0.3159907
0.1861277
-0.4347781
0.1974187
0.870985
0.2565743
0.5247597
-0.0579121
0.3676045
-0.05536612
-0.2980936
-0.1127888
-0.4935743
0.1356226
0.07570349
0.4328808
-0.367149
-0.1596211
0.3235052
0.0825472
-0.4059505
0.2416633
-0.01339273
-0.02026654
-0.2047106
0.163586
-0.3596171
-0.2749778
-0.5250275
0.3300318
-0.2291276
-0.3359611
-0.3623743
-0.07204121
-0.3127711
0.8948147
0.3241436
0.6381767
-0.4754303
-0.5295843
-0.008762546
-0.1597425
-0.3242399
0.02380447
-0.3387889
0.4311768
0.1208185
-0.1637906
-0.07754579
0.2844337
-0.3901899
0.14057
0.2789277
0.6900405
-0.4074352
-0.2089911
-0.3175113
-0.6465918
-0.4340582
0.2569667
-0.4059476
0.04090237
0.2092813
-0.2583161
0.05095059
0.2853191
-0.7557141
-0.2181015
0.4577032
0.5243676
-0.00300163
0.7939023
-0.1638061
-0.1257822
-0.4607601
0.24148
0.2252346
-0.3588568
-0.4378237
0.1514023
