-0.2388619
-0.06282976
-0.2016426
-0.0069662
0.3910203
-0.1464522
0.2003532
-0.3217585
-0.2622466
0.1643666
0.02985281
0.411817
0.2083836
-0.3271401
-0.3248259
0.02346325
-0.101953
0.09044967
0.4395148
0.2127327
0.2268965
-0.5427106
0.2365645
-0.03862865
0.1432779
-0.2332803
-0.1336965
-0.2552363
-0.4509817
-0.1401705
0.258529
0.4200678
-0.110141
-0.1958368
-0.4920387
0.4221042
0.4812941
0.4302721
-0.0593295
0.09128385
-0.07890296
-0.06859407
0.3246942
0.2337379
-0.1746882
-0.1062632
0.1877875
-0.1833631
-0.4527396
0.1713121
0.0714432
0.1716589
-0.3636848
0.2247702
-0.02433254
-0.3226942
0.2006058
-0.3195731
0.2353078
0.1932644
0.4872444
-0.09543461
-0.4201213
0.377924
0.3991091
0.1296123
0.02195799
0.07981956
-0.1496503
-0.08226302
0.04216915
0.1936176
-0.5300552
-0.001617879
-0.2083643
-0.01513845
-0.2408619
0.1367149
0.2926188
-0.08051981
-0.00699009
-0.5986488
-0.3024967
-0.07706355
0.1178057
0.294114
-0.003495574
0.3575838
0.1740897
0.3306555
-0.2785016
0.3008672
-0.4261372
0.1871368
-0.04611164
-0.4570119
-0.2167349
0.4272391
-0.5686888
0.1956995
0.5486836
-0.4141543
0.4662871
0.1480835
-0.4794612
-0.3468526
0.1658695
0.3284138
-0.2593605
-0.1893261
0.4181677
0.3772721
-0.1121919
0.04642256
-0.3856679
0.4375777
-0.3193944
0.152828
-0.2398818
0.4241123
-0.4438323
0.1643742
0.4057298
