-0.1726643
-0.1069548
-0.02065885
-0.1011258
-0.402782
-0.08505765
-0.1702382
0.2225595
-0.892264
0.1134588
-0.3064516
-0.2121104
0.4047184
0.4813928
-0.3781875
0.7862359
-0.1801081
-0.4779726
-0.3220423
0.8311682
-0.3193232
0.8405629
-0.2855159
-0.4337589
-0.1141833
0.6314745
0.06968495
0.4194897
0.5748851
-0.02810643
0.1687852
-0.4279234
-0.6950244
-0.923492
0.4125336
-0.5212873
0.3864676
0.862913
-0.3799603
0.2038523
-0.1706528
0.5339218
-0.6087647
-0.466168
0.9245474
-0.1485222
0.4271956
-0.2569327
-0.6949708
-0.3276481
-0.5445901
-0.6490653
-0.3436568
0.2961668
-0.5202817
0.7145306
-0.1151975
-0.4875438
-0.1319225
0.01748065
0.1097769
0.0585042
0.140333
-0.1818799
-0.0968199
0.2993686
0.2053714
0.2199096
0.7217444
-1
-0.5775069
-0.4044177
0.6968773
0.3586454
0.407905
0.1614605
0.1510328
0.2351938
0.5960525
-0.5788691
-0.2112934
0.4789811
0.17659
0.4447135
0.1173871
-0.4715762
-0.3792393
-0.340242
0.4673075
0.03069618
-0.5358894
0.5177781
0.009809896
0.6001432
0.6755881
0.03801583
-0.2602245
0.2012078
0.3626055
0.1869508
-0.3034828
0.6663198
-0.2620949
-0.5624334
-0.5275249
1
-0.2785457
-0.347051
0.6672811
0.4285977
-0.4596541
0.04307083
-0.2201501
-0.8197756
-0.1957491
-0.6817034
0.3861693
0.2334903
0.3072505
-0.4335867
0.3218515
-0.3276735
0.3900397
